digraph Tree {
node [shape=box, style="filled, rounded", color="black", fontname=helvetica] ;
edge [fontname=helvetica] ;
0 [label="uniformity of cell size <= 3.5\ngini = 0.455\nsamples = 559\nvalue = [363, 196]", fillcolor="#f3c5a4"] ;
1 [label="bare nuclei <= 6.0\ngini = 0.132\nsamples = 380\nvalue = [353, 27]", fillcolor="#e78b48"] ;
0 -> 1 [labeldistance=2.5, labelangle=45, headlabel="True"] ;
2 [label="normal nucleoli <= 3.5\ngini = 0.049\nsamples = 361\nvalue = [352, 9]", fillcolor="#e6843e"] ;
1 -> 2 ;
3 [label="bare nuclei <= 2.5\ngini = 0.017\nsamples = 351\nvalue = [348, 3]", fillcolor="#e5823b"] ;
2 -> 3 ;
4 [label="gini = 0.0\nsamples = 331\nvalue = [331, 0]", fillcolor="#e58139"] ;
3 -> 4 ;
5 [label="thickness <= 4.5\ngini = 0.255\nsamples = 20\nvalue = [17, 3]", fillcolor="#ea975c"] ;
3 -> 5 ;
6 [label="gini = 0.0\nsamples = 16\nvalue = [16, 0]", fillcolor="#e58139"] ;
5 -> 6 ;
7 [label="gini = 0.375\nsamples = 4\nvalue = [1, 3]", fillcolor="#7bbeee"] ;
5 -> 7 ;
8 [label="bare nuclei <= 2.5\ngini = 0.48\nsamples = 10\nvalue = [4, 6]", fillcolor="#bddef6"] ;
2 -> 8 ;
9 [label="gini = 0.375\nsamples = 4\nvalue = [3, 1]", fillcolor="#eeab7b"] ;
8 -> 9 ;
10 [label="gini = 0.278\nsamples = 6\nvalue = [1, 5]", fillcolor="#61b1ea"] ;
8 -> 10 ;
11 [label="bland chromatin <= 3.5\ngini = 0.1\nsamples = 19\nvalue = [1, 18]", fillcolor="#44a2e6"] ;
1 -> 11 ;
12 [label="gini = 0.278\nsamples = 6\nvalue = [1, 5]", fillcolor="#61b1ea"] ;
11 -> 12 ;
13 [label="gini = 0.0\nsamples = 13\nvalue = [0, 13]", fillcolor="#399de5"] ;
11 -> 13 ;
14 [label="uniformity of cell size <= 4.5\ngini = 0.105\nsamples = 179\nvalue = [10, 169]", fillcolor="#45a3e7"] ;
0 -> 14 [labeldistance=2.5, labelangle=-45, headlabel="False"] ;
15 [label="bare nuclei <= 7.5\ngini = 0.375\nsamples = 32\nvalue = [8, 24]", fillcolor="#7bbeee"] ;
14 -> 15 ;
16 [label="thickness <= 6.0\ngini = 0.497\nsamples = 13\nvalue = [7, 6]", fillcolor="#fbede3"] ;
15 -> 16 ;
17 [label="gini = 0.278\nsamples = 6\nvalue = [5, 1]", fillcolor="#ea9a61"] ;
16 -> 17 ;
18 [label="gini = 0.408\nsamples = 7\nvalue = [2, 5]", fillcolor="#88c4ef"] ;
16 -> 18 ;
19 [label="bland chromatin <= 3.5\ngini = 0.1\nsamples = 19\nvalue = [1, 18]", fillcolor="#44a2e6"] ;
15 -> 19 ;
20 [label="gini = 0.32\nsamples = 5\nvalue = [1, 4]", fillcolor="#6ab6ec"] ;
19 -> 20 ;
21 [label="gini = 0.0\nsamples = 14\nvalue = [0, 14]", fillcolor="#399de5"] ;
19 -> 21 ;
22 [label="bland chromatin <= 4.5\ngini = 0.027\nsamples = 147\nvalue = [2, 145]", fillcolor="#3c9ee5"] ;
14 -> 22 ;
23 [label="thickness <= 6.5\ngini = 0.102\nsamples = 37\nvalue = [2, 35]", fillcolor="#44a3e6"] ;
22 -> 23 ;
24 [label="bare nuclei <= 8.5\ngini = 0.26\nsamples = 13\nvalue = [2, 11]", fillcolor="#5dafea"] ;
23 -> 24 ;
25 [label="gini = 0.444\nsamples = 6\nvalue = [2, 4]", fillcolor="#9ccef2"] ;
24 -> 25 ;
26 [label="gini = 0.0\nsamples = 7\nvalue = [0, 7]", fillcolor="#399de5"] ;
24 -> 26 ;
27 [label="gini = 0.0\nsamples = 24\nvalue = [0, 24]", fillcolor="#399de5"] ;
23 -> 27 ;
28 [label="gini = 0.0\nsamples = 110\nvalue = [0, 110]", fillcolor="#399de5"] ;
22 -> 28 ;
}