digraph Tree {
node [shape=box, style="filled, rounded", color="black", fontname=helvetica] ;
edge [fontname=helvetica] ;
0 [label="outlook_sunny <= 0.5\nentropy = 0.918\nsamples = 12\nvalue = [8, 4]", fillcolor="#f2c09c"] ;
1 [label="humidity_high <= 0.5\nentropy = 0.991\nsamples = 9\nvalue = [5, 4]", fillcolor="#fae6d7"] ;
0 -> 1 [labeldistance=2.5, labelangle=45, headlabel="True"] ;
2 [label="windy_false <= 0.5\nentropy = 0.722\nsamples = 5\nvalue = [4, 1]", fillcolor="#eca06a"] ;
1 -> 2 ;
3 [label="entropy = 0.0\nsamples = 3\nvalue = [3, 0]", fillcolor="#e58139"] ;
2 -> 3 ;
4 [label="entropy = 1.0\nsamples = 2\nvalue = [1, 1]", fillcolor="#ffffff"] ;
2 -> 4 ;
5 [label="outlook_overcast <= 0.5\nentropy = 0.811\nsamples = 4\nvalue = [1, 3]", fillcolor="#7bbeee"] ;
1 -> 5 ;
6 [label="entropy = 0.0\nsamples = 2\nvalue = [0, 2]", fillcolor="#399de5"] ;
5 -> 6 ;
7 [label="entropy = 1.0\nsamples = 2\nvalue = [1, 1]", fillcolor="#ffffff"] ;
5 -> 7 ;
8 [label="entropy = 0.0\nsamples = 3\nvalue = [3, 0]", fillcolor="#e58139"] ;
0 -> 8 [labeldistance=2.5, labelangle=-45, headlabel="False"] ;
}